digraph Tree {
node [shape=box] ;
0 [label="num <= 2.5\ngini = 0.633\nsamples = 16\nvalue = [6, 7, 3]"] ;
1 [label="FAQ <= 0.5\ngini = 0.444\nsamples = 9\nvalue = [3, 6, 0]"] ;
0 -> 1 [labeldistance=2.5, labelangle=45, headlabel="True"] ;
2 [label="gini = 0.0\nsamples = 4\nvalue = [0, 4, 0]"] ;
1 -> 2 ;
3 [label="stc <= 3.5\ngini = 0.48\nsamples = 5\nvalue = [3, 2, 0]"] ;
1 -> 3 ;
4 [label="gini = 0.0\nsamples = 3\nvalue = [3, 0, 0]"] ;
3 -> 4 ;
5 [label="gini = 0.0\nsamples = 2\nvalue = [0, 2, 0]"] ;
3 -> 5 ;
6 [label="stc <= 1.5\ngini = 0.612\nsamples = 7\nvalue = [3, 1, 3]"] ;
0 -> 6 [labeldistance=2.5, labelangle=-45, headlabel="False"] ;
7 [label="gini = 0.0\nsamples = 2\nvalue = [2, 0, 0]"] ;
6 -> 7 ;
8 [label="stc <= 2.5\ngini = 0.56\nsamples = 5\nvalue = [1, 1, 3]"] ;
6 -> 8 ;
9 [label="gini = 0.0\nsamples = 3\nvalue = [0, 0, 3]"] ;
8 -> 9 ;
10 [label="FAQ <= 0.5\ngini = 0.5\nsamples = 2\nvalue = [1, 1, 0]"] ;
8 -> 10 ;
11 [label="gini = 0.0\nsamples = 1\nvalue = [0, 1, 0]"] ;
10 -> 11 ;
12 [label="gini = 0.0\nsamples = 1\nvalue = [1, 0, 0]"] ;
10 -> 12 ;
}